0.271503586002839,-0.143862904663676,0.11352312289019,0.648495329206423,-0.19268965112354,-0.619166372661013,0.0729686361721147,0.0556460362736231,0.0551257173422742,0.0330228996354531,0.185926971741353,-0.456944633728649,0.0960186730420341,-0.0944159373984896,0.516223365936296,0.147018533421162,0.465739277659462,-0.351651112700882,-0.254281082974866,0.154356245691828,-0.070356605645975,-0.0220825964362589,-0.382635351877353,-0.52723437994247,0.103516662120026,-0.0296160014610154,0.0131315296757475,0.174949572910478,0.0277420547188066,0.148234474871621,0.107036591876985,0.330937275717129,-0.0894617575626523,0.144668761315972,-0.352618359337117,-0.0748705361579494,0.0871451017042185,0.0566893732547367,0.0284064941935521,-0.232475500981353,0.204006824684924,-0.326648986935579,0.497730634767752,0.300980732975756,0.407411257336766,-0.0362932328978721,0.57334572106012,-0.283477933345588,0.634534617768177,-0.384240634714588,-0.16140744099934,-0.563140680255284,0.359667660433781,-0.12104893478251,-0.398505742658896,0.0703029264597148,0.0525523109634357,0.17485412055924,0.453637971882882,-0.48282977239174,0.325140937923547,0.262816047759519,-0.131981116963308,0.0999578955080646,-0.70939163620103,-0.0913670326096576,-0.186679105583338,0.801877485759546,0.00182375433648219,-0.0767306004289154,-0.0921831053217618,0.191125421508284,0.0745887830530879,-0.105483326788799,-0.108995606258096,-0.910480086988552,-0.863215245472844,0.24889313093181,0.0139203505007875,0.179287803799328,0.270202199775798,-0.588746528002256,
